[{"layer": 0, "weights": [[]], "bias": [[]]}, {"layer": 1, "weights": [[-0.5206634922609815, -1.0156505787264956, 0.15430699027716208, 0.3500723185101461, 1.1233730076353574, -0.4801207925530771, 2.667768407484832, 0.8909966357194373, 0.6526925254726981, 0.7689183466428502, -0.6423478421803376, -0.6653642443903338, -1.2030047262564945, -0.323453028862368, 0.6396821514007671, 1.683509882398468, 0.39576487669141985, -0.7531414071401588, 0.6532162654140721, 0.349998388229903, 0.5461604340864462, -0.20789040401306294, 2.1756803927802175, 1.28212584837766, -3.226548335586259, 0.6811918573278387, -2.0318072461872974, -0.5997726061201426, -0.7694554297181567, 0.8048577134643276, -0.41439999488400964, 0.561164922815353, -1.3824861054408355, -0.42138400410942456, -0.8309580246442336, -0.36388376207917406, -1.475925577459654, -0.0025399551691433356, -1.0239602323290276, 0.07519701553087113, -0.4363773053670694, -2.006010607800038, 0.2365678629551442, -2.042488179102518, -0.5912302102204623, -3.3618497507505993, 0.7937111499629029, -0.10148669323893662, -0.9702972996669561, -0.33976599468335505, 0.07318306369746873, 1.1124433170846277, 1.8512111987539313, 0.2638537925193421]], "bias": [[-1.605690304201156]]}, {"layer": 2, "weights": [[8.854903738563097]], "bias": [[-4.301460994924918]]}]