[{"layer": 0, "weights": [[]], "bias": [[]]}, {"layer": 1, "weights": [[-0.5127016320980561, -0.9873634267188206, 0.15400926303441878, 0.35246568170266, 1.100099232078508, -0.45703027506504884, 2.6241519410030785, 0.8523153566851794, 0.6434495786837167, 0.7370329486780302, -0.5707337096320215, -0.675997893020483, -1.2017156011063608, -0.29109772044647947, 0.6237178667949776, 1.638184420788298, 0.38894845228139946, -0.7002676711525596, 0.6434821561942602, 0.3544652151083427, 0.5267007169525094, -0.1910952870296147, 2.108687769761314, 1.2257805303252323, -3.102864046758819, 0.6064995867654505, -1.9774472170766546, -0.5614865344595109, -0.7170592063406392, 0.7436879178273215, -0.37739251949277336, 0.5627170270547089, -1.2962648770464296, -0.4171048517450844, -0.7935750304189646, -0.36371832534371135, -1.4434706138130804, -0.011668160867637884, -0.9704377921520991, 0.053066761400497015, -0.42354184965628683, -1.9304272940159883, 0.2326850625503549, -1.929420103344973, -0.5770079450649158, -3.27229036478633, 0.7971971018865495, -0.0950516542230389, -0.8999593222556702, -0.32497473281973194, 0.05140240347188504, 1.0887108587421308, 1.8289178330259304, 0.2176362454656989]], "bias": [[-1.578180039645795]]}, {"layer": 2, "weights": [[8.637217680518468]], "bias": [[-4.207752845319748]]}]