[{"layer": 0, "weights": [[]], "bias": [[]]}, {"layer": 1, "weights": [[-0.5303499599133149, -1.0723916705424728, 0.1605766167771116, 0.3472086708353439, 1.1564734843228937, -0.5059327548117706, 2.727660859315202, 0.9680358693678555, 0.6587743607936181, 0.8162210295614677, -0.7770577165185791, -0.6272758391013201, -1.2021384341419772, -0.3836306663776234, 0.67146377429523, 1.7584245890546089, 0.4067565322792269, -0.857315657960145, 0.6648010414549813, 0.3442710723389381, 0.5865010418560478, -0.2204863103917183, 2.285134160339788, 1.3916592418418736, -3.4451573518293857, 0.8002613782080538, -2.1269815730844965, -0.6700945782822606, -0.8605843304141816, 0.9060957815019886, -0.4835180209149739, 0.5592446131683038, -1.5793810369262828, -0.4265752154341404, -0.9005618780726378, -0.3661161994714621, -1.5230146123607184, 0.009799066885078167, -1.114466892192702, 0.12308862843058545, -0.45314884169065256, -2.1289425580429224, 0.24745454420548058, -2.2348646037902875, -0.6137330743015821, -3.552167422071848, 0.787934092347413, -0.11751007627115195, -1.091460536236061, -0.36440871388589824, 0.10785197776065063, 1.153352194154575, 1.885147836725409, 0.334445582867451]], "bias": [[-1.6549530633353298]]}, {"layer": 2, "weights": [[9.237334970818278]], "bias": [[-4.464399718362959]]}]