[{"layer": 0, "weights": [[]], "bias": [[]]}, {"layer": 1, "weights": [[-0.5043054917788137, -0.9580196422862836, 0.154320189423805, 0.3559965956139017, 1.073221608207477, -0.42680149786204125, 2.573165203507168, 0.8152689040749853, 0.6276670864698934, 0.7001687485239436, -0.49135256954199613, -0.682393730407169, -1.1985858658934307, -0.25624843509888295, 0.6078194269924044, 1.5893674715605042, 0.3803304884401493, -0.6460591594452466, 0.6310150876480172, 0.35995631490318536, 0.5089527404101952, -0.16688858431641063, 2.031907058634977, 1.167952095548032, -2.9694882968838865, 0.5175710581414898, -1.9166920259907583, -0.5205030275447228, -0.6597113193396362, 0.6734730615827765, -0.33838222728031503, 0.5648911398317975, -1.2110822009883058, -0.41091563370170003, -0.7540797695797377, -0.3641830726552939, -1.4037147841320117, -0.023148895040498198, -0.9102367090143583, 0.029675334747376762, -0.40702195562322524, -1.842022560805511, 0.2298576714939881, -1.8022674587696088, -0.5614221175840897, -3.1783053275998383, 0.8012161363231373, -0.08902224912491125, -0.8241360387294784, -0.30991104667348385, 0.02552931112698374, 1.0645260848004894, 1.8050830053487372, 0.1628601470100897]], "bias": [[-1.5502088111523489]]}, {"layer": 2, "weights": [[8.395877128611057]], "bias": [[-4.10244264204569]]}]