[{"layer": 0, "weights": [[]], "bias": [[]]}, {"layer": 1, "weights": [[-0.5271497612680832, -1.0434857172209415, 0.15578739932478208, 0.34840372702787586, 1.142873596125935, -0.49694985706829803, 2.7037868170014283, 0.9297115611178921, 0.6573282659647149, 0.795860515349054, -0.7092281523909669, -0.6503817138891342, -1.2034389599967674, -0.35414749017552655, 0.6556296764518145, 1.724537703757905, 0.40153448105815615, -0.8047347716805413, 0.6604290505155477, 0.3465995441812828, 0.5666413718190496, -0.21759892616821405, 2.234251799915076, 1.337427732968351, -3.340907133322303, 0.744534687626581, -2.0812635406639077, -0.6357971374127054, -0.817181006413779, 0.8587199847766604, -0.4496444313646911, 0.5600476060847378, -1.4740771747954762, -0.424405881090601, -0.8664837470833219, -0.36473116435982017, -1.5022326000395019, 0.0045335234616814555, -1.0717102112042924, 0.09758408664744918, -0.4461552713514228, -2.07163465284869, 0.2413598464523932, -2.143832040061834, -0.6037872059561634, -3.4520161112340007, 0.7906647590880124, -0.10879367882997039, -1.0344361795542671, -0.35355330231069754, 0.0917517271757838, 1.1345966364317162, 1.87113573144781, 0.30205511001697716]], "bias": [[-1.631733464511902]]}, {"layer": 2, "weights": [[9.053839033219859]], "bias": [[-4.3863500937080495]]}]