[{"layer": 0, "weights": [[]], "bias": [[]]}, {"layer": 1, "weights": [[0.6763240133693023, 0.7044626524188877, 0.5579773031704661, 0.4571090667198909, 0.2818440431261271, 1.0617759807014444, 1.0030876455028026, 0.6543436478475373, 0.4473702032694306, 0.9688419596676481, 0.9656792644871983, 0.22808405685429609, 0.19109281223665336, 0.32042479389652806, 0.9523217032041362, 0.6988226435702471, 0.3625063953742538, 0.6668263730658344, 0.7831649338749226, 0.22666011102673608, 0.9463835929818194, 0.9762941473838022, 0.6487932372855855, 0.38485575879439016, 0.40296940813503035, 0.22456781437991225, 0.22060919249589056, 0.19491003994273426, 0.11180910911764844, 0.19211938717742325, 0.1869653482472357, 0.39756403629415715, 0.4884166120926871, 0.25545973739192634, 0.11089180010596401, 0.41177279248207166, -0.029115113943576694, 0.12562107012211463, 0.8760583461021819, 0.6123406616647413, 0.8989662107515204, -0.12011549947628512, 0.45643425990697295, 0.04100852290479799, 0.3271062608936321, 0.8039297617334855, 0.9259634510894921, 0.3551630224611758, 0.8390445803356599, 0.1935048641872817, 0.6104787749307655, 1.136506125641752, 0.9041454439676994, 0.4377754156644117], [0.9738638908791073, 0.8434561783601795, 0.34028792383011935, 0.8974286940140174, 0.22546807345006456, 0.7203908016065169, 0.8554934489051534, 0.6380972301686211, 0.8963959928672715, 0.107082911027464, 0.5436519952078034, 0.26098614630408434, 0.3348556796867902, 0.5322586305221387, 0.5600318470754798, 0.5950967755274498, 0.31571681033320553, 0.5998135907263682, 0.10549995580367633, 0.6777265017694423, 0.9418797257676951, 0.8207921696547206, 0.6736194375768165, 0.4283809535047281, 0.8058226026859684, 0.37046143927492975, 0.1522653922128462, 0.48409451423855726, 1.0024745465148766, 0.5197141395266527, 0.14361317699555654, 0.46320629664375634, 0.8645033002783561, 0.9112256332647306, 0.510802390384501, 0.9604740943377328, 0.6918712662992297, 0.7359916652319518, 0.7842468715164338, 0.11252352785958124, 0.8766225484961592, 0.853873365321437, 0.7389838588087285, 0.6550239343250114, 0.8017407138715318, 0.4577838848859832, 0.793540546739104, 0.5136580852472815, 0.40061107061180157, 0.8273791198374337, 0.7602179009111458, 0.6426852506930302, 0.868022042466475, 0.7223519694538966], [-0.7350396504526757, -0.549510858542783, 0.2535125623783362, 0.3482396280674659, 0.720203934853983, -0.03895837698258048, 2.142884979603334, 1.3202153171768671, 0.18696711973470023, 0.5205372639464135, -0.1077461906640527, -0.8852727944585395, -1.0846341099437393, -0.29531072824508237, 0.3928254786222477, 1.5800088089194972, 0.15748872857328736, -0.49470971703436467, 0.6141378956266605, 0.5012206832174417, 0.4867977044063165, 0.30307335926076096, 1.3297136701612355, 1.0621295041990582, -2.2298907492781423, -0.060612544115947145, -1.7655218428015222, -0.5484926870677717, -0.34226870529887143, 0.16839871930643063, -0.1835380459795095, 0.04719223200193427, -0.8272991533090672, 0.24752100114654285, -0.26151439833518286, -0.23003572764755478, -1.0005033078550511, 0.24245467247089228, -0.5326262081468722, -0.06975628791666867, -0.21593993608580145, -1.1021078633509276, 0.09880469879660701, -0.5954753887913158, -0.3609274059189707, -2.0275535812152388, 0.27324357359305834, -0.10636443467502926, -0.6413543673167701, -0.22739701400173196, -0.29757043725952814, 1.0260857826909655, 1.7177906734602677, -0.07538819558835333]], "bias": [[-0.606927846887994], [0.8946500030889544], [-1.5545775555647574]]}, {"layer": 2, "weights": [[0.7472662287533847, -0.952923065718385, 6.63868309632634]], "bias": [[-3.0894207402121467]]}]